network unknown {
}
variable A {
    type discrete [ 7 ] { 0, 1, 2, 3, 4, 5, 6 };
}
variable B {
    type discrete [ 3 ] { 0, 1, 2 };
}
variable C {
    type discrete [ 3 ] { 0, 1, 2 };
}
variable D {
    type discrete [ 15 ] { -12, -11, -10, -9, -8, -7, -6, -5, -4, -3, -2, -1, 0, 1, 2 };
}
variable F {
    type discrete [ 7 ] { 0, 1, 2, 3, 4, 5, 6 };
}
variable G {
    type discrete [ 3 ] { 0, 1, 2 };
}
variable H {
    type discrete [ 9 ] { -6, -5, -4, -3, -2, -1, 0, 1, 2 };
}
probability ( A | D, G ) {
    ( -12, 0 ) 0.0, 0.0, 0.0, 0.0, 0.0, 0.0, 1.0;
    ( -12, 1 ) 0.14285714285714285, 0.14285714285714285, 0.14285714285714285, 0.14285714285714285, 0.14285714285714285, 0.14285714285714285, 0.14285714285714285;
    ( -12, 2 ) 0.14285714285714285, 0.14285714285714285, 0.14285714285714285, 0.14285714285714285, 0.14285714285714285, 0.14285714285714285, 0.14285714285714285;
    ( -11, 0 ) 0.14285714285714285, 0.14285714285714285, 0.14285714285714285, 0.14285714285714285, 0.14285714285714285, 0.14285714285714285, 0.14285714285714285;
    ( -11, 1 ) 0.0, 0.0, 0.0, 0.0, 0.0, 0.0, 1.0;
    ( -11, 2 ) 0.14285714285714285, 0.14285714285714285, 0.14285714285714285, 0.14285714285714285, 0.14285714285714285, 0.14285714285714285, 0.14285714285714285;
    ( -10, 0 ) 0.0, 0.0, 0.0, 0.0, 0.0, 1.0, 0.0;
    ( -10, 1 ) 0.14285714285714285, 0.14285714285714285, 0.14285714285714285, 0.14285714285714285, 0.14285714285714285, 0.14285714285714285, 0.14285714285714285;
    ( -10, 2 ) 0.0, 0.0, 0.0, 0.0, 0.0, 0.0, 1.0;
    ( -9, 0 ) 0.14285714285714285, 0.14285714285714285, 0.14285714285714285, 0.14285714285714285, 0.14285714285714285, 0.14285714285714285, 0.14285714285714285;
    ( -9, 1 ) 0.0, 0.0, 0.0, 0.0, 0.0, 1.0, 0.0;
    ( -9, 2 ) 0.14285714285714285, 0.14285714285714285, 0.14285714285714285, 0.14285714285714285, 0.14285714285714285, 0.14285714285714285, 0.14285714285714285;
    ( -8, 0 ) 0.0, 0.0, 0.0, 0.0, 1.0, 0.0, 0.0;
    ( -8, 1 ) 0.14285714285714285, 0.14285714285714285, 0.14285714285714285, 0.14285714285714285, 0.14285714285714285, 0.14285714285714285, 0.14285714285714285;
    ( -8, 2 ) 0.0, 0.0, 0.0, 0.0, 0.0, 1.0, 0.0;
    ( -7, 0 ) 0.14285714285714285, 0.14285714285714285, 0.14285714285714285, 0.14285714285714285, 0.14285714285714285, 0.14285714285714285, 0.14285714285714285;
    ( -7, 1 ) 0.0, 0.0, 0.0, 0.0, 1.0, 0.0, 0.0;
    ( -7, 2 ) 0.14285714285714285, 0.14285714285714285, 0.14285714285714285, 0.14285714285714285, 0.14285714285714285, 0.14285714285714285, 0.14285714285714285;
    ( -6, 0 ) 0.0, 0.0, 0.0, 1.0, 0.0, 0.0, 0.0;
    ( -6, 1 ) 0.14285714285714285, 0.14285714285714285, 0.14285714285714285, 0.14285714285714285, 0.14285714285714285, 0.14285714285714285, 0.14285714285714285;
    ( -6, 2 ) 0.0, 0.0, 0.0, 0.0, 1.0, 0.0, 0.0;
    ( -5, 0 ) 0.14285714285714285, 0.14285714285714285, 0.14285714285714285, 0.14285714285714285, 0.14285714285714285, 0.14285714285714285, 0.14285714285714285;
    ( -5, 1 ) 0.0, 0.0, 0.0, 1.0, 0.0, 0.0, 0.0;
    ( -5, 2 ) 0.14285714285714285, 0.14285714285714285, 0.14285714285714285, 0.14285714285714285, 0.14285714285714285, 0.14285714285714285, 0.14285714285714285;
    ( -4, 0 ) 0.0, 0.0, 1.0, 0.0, 0.0, 0.0, 0.0;
    ( -4, 1 ) 0.14285714285714285, 0.14285714285714285, 0.14285714285714285, 0.14285714285714285, 0.14285714285714285, 0.14285714285714285, 0.14285714285714285;
    ( -4, 2 ) 0.0, 0.0, 0.0, 1.0, 0.0, 0.0, 0.0;
    ( -3, 0 ) 0.14285714285714285, 0.14285714285714285, 0.14285714285714285, 0.14285714285714285, 0.14285714285714285, 0.14285714285714285, 0.14285714285714285;
    ( -3, 1 ) 0.0, 0.0, 1.0, 0.0, 0.0, 0.0, 0.0;
    ( -3, 2 ) 0.14285714285714285, 0.14285714285714285, 0.14285714285714285, 0.14285714285714285, 0.14285714285714285, 0.14285714285714285, 0.14285714285714285;
    ( -2, 0 ) 0.0, 1.0, 0.0, 0.0, 0.0, 0.0, 0.0;
    ( -2, 1 ) 0.14285714285714285, 0.14285714285714285, 0.14285714285714285, 0.14285714285714285, 0.14285714285714285, 0.14285714285714285, 0.14285714285714285;
    ( -2, 2 ) 0.0, 0.0, 1.0, 0.0, 0.0, 0.0, 0.0;
    ( -1, 0 ) 0.14285714285714285, 0.14285714285714285, 0.14285714285714285, 0.14285714285714285, 0.14285714285714285, 0.14285714285714285, 0.14285714285714285;
    ( -1, 1 ) 0.0, 1.0, 0.0, 0.0, 0.0, 0.0, 0.0;
    ( -1, 2 ) 0.14285714285714285, 0.14285714285714285, 0.14285714285714285, 0.14285714285714285, 0.14285714285714285, 0.14285714285714285, 0.14285714285714285;
    ( 0, 0 ) 1.0, 0.0, 0.0, 0.0, 0.0, 0.0, 0.0;
    ( 0, 1 ) 0.14285714285714285, 0.14285714285714285, 0.14285714285714285, 0.14285714285714285, 0.14285714285714285, 0.14285714285714285, 0.14285714285714285;
    ( 0, 2 ) 0.0, 1.0, 0.0, 0.0, 0.0, 0.0, 0.0;
    ( 1, 0 ) 0.14285714285714285, 0.14285714285714285, 0.14285714285714285, 0.14285714285714285, 0.14285714285714285, 0.14285714285714285, 0.14285714285714285;
    ( 1, 1 ) 1.0, 0.0, 0.0, 0.0, 0.0, 0.0, 0.0;
    ( 1, 2 ) 0.14285714285714285, 0.14285714285714285, 0.14285714285714285, 0.14285714285714285, 0.14285714285714285, 0.14285714285714285, 0.14285714285714285;
    ( 2, 0 ) 0.14285714285714285, 0.14285714285714285, 0.14285714285714285, 0.14285714285714285, 0.14285714285714285, 0.14285714285714285, 0.14285714285714285;
    ( 2, 1 ) 0.14285714285714285, 0.14285714285714285, 0.14285714285714285, 0.14285714285714285, 0.14285714285714285, 0.14285714285714285, 0.14285714285714285;
    ( 2, 2 ) 1.0, 0.0, 0.0, 0.0, 0.0, 0.0, 0.0;

}
probability ( B | A, C ) {
    ( 0, 0 ) 1.0, 0.0, 0.0;
    ( 0, 1 ) 0.3333333333333333, 0.3333333333333333, 0.3333333333333333;
    ( 0, 2 ) 0.3333333333333333, 0.3333333333333333, 0.3333333333333333;
    ( 1, 0 ) 0.48170075349838537, 0.5182992465016146, 0.0;
    ( 1, 1 ) 1.0, 0.0, 0.0;
    ( 1, 2 ) 0.3333333333333333, 0.3333333333333333, 0.3333333333333333;
    ( 2, 0 ) 0.3143491124260356, 0.33986686390532544, 0.34578402366863903;
    ( 2, 1 ) 0.5053191489361702, 0.4946808510638298, 0.0;
    ( 2, 2 ) 1.0, 0.0, 0.0;
    ( 3, 0 ) 0.0, 0.5036269430051813, 0.4963730569948186;
    ( 3, 1 ) 0.33090379008746357, 0.33090379008746357, 0.33819241982507287;
    ( 3, 2 ) 0.5143787303309821, 0.4856212696690179, 0.0;
    ( 4, 0 ) 0.0, 0.0, 1.0;
    ( 4, 1 ) 0.0, 0.5008121277747699, 0.4991878722252301;
    ( 4, 2 ) 0.3330914368650218, 0.3327285921625544, 0.33417997097242386;
    ( 5, 0 ) 0.3333333333333333, 0.3333333333333333, 0.3333333333333333;
    ( 5, 1 ) 0.0, 0.0, 1.0;
    ( 5, 2 ) 0.0, 0.5132978723404256, 0.4867021276595745;
    ( 6, 0 ) 0.3333333333333333, 0.3333333333333333, 0.3333333333333333;
    ( 6, 1 ) 0.3333333333333333, 0.3333333333333333, 0.3333333333333333;
    ( 6, 2 ) 0.0, 0.0, 1.0;

}
probability ( C | A ) {
    ( 0 ) 1.0, 0.0, 0.0;
    ( 1 ) 0.6746550472040668, 0.32534495279593323, 0.0;
    ( 2 ) 0.4890576957858564, 0.34002532103454514, 0.17091698317959847;
    ( 3 ) 0.2961485346018107, 0.42105263157894735, 0.282798833819242;
    ( 4 ) 0.1700324558240173, 0.3330328164442842, 0.4969347277316985;
    ( 5 ) 0.0, 0.3342776203966006, 0.6657223796033994;
    ( 6 ) 0.0, 0.0, 1.0;

}
probability ( D | H ) {
    ( -6 ) 1.0, 0.0, 0.0, 0.0, 0.0, 0.0, 0.0, 0.0, 0.0, 0.0, 0.0, 0.0, 0.0, 0.0, 0.0;
    ( -5 ) 0.0, 0.2569832402234637, 0.7430167597765364, 0.0, 0.0, 0.0, 0.0, 0.0, 0.0, 0.0, 0.0, 0.0, 0.0, 0.0, 0.0;
    ( -4 ) 0.0, 0.0, 0.09566074950690336, 0.30769230769230765, 0.596646942800789, 0.0, 0.0, 0.0, 0.0, 0.0, 0.0, 0.0, 0.0, 0.0, 0.0;
    ( -3 ) 0.0, 0.0, 0.0, 0.0, 0.19228450874020495, 0.3823588507132811, 0.42535664054651395, 0.0, 0.0, 0.0, 0.0, 0.0, 0.0, 0.0, 0.0;
    ( -2 ) 0.0, 0.0, 0.0, 0.0, 0.0, 0.0, 0.3109372342235074, 0.37778533764245614, 0.3112774281340364, 0.0, 0.0, 0.0, 0.0, 0.0, 0.0;
    ( -1 ) 0.0, 0.0, 0.0, 0.0, 0.0, 0.0, 0.0, 0.0, 0.43012238452427953, 0.3772206869324911, 0.19265692854322938, 0.0, 0.0, 0.0, 0.0;
    ( 0 ) 0.0, 0.0, 0.0, 0.0, 0.0, 0.0, 0.0, 0.0, 0.0, 0.0, 0.6046668921203923, 0.28982076428812986, 0.10551234359147783, 0.0, 0.0;
    ( 1 ) 0.0, 0.0, 0.0, 0.0, 0.0, 0.0, 0.0, 0.0, 0.0, 0.0, 0.0, 0.0, 0.7592745259686727, 0.2407254740313273, 0.0;
    ( 2 ) 0.0, 0.0, 0.0, 0.0, 0.0, 0.0, 0.0, 0.0, 0.0, 0.0, 0.0, 0.0, 0.0, 0.0, 1.0;

}
probability ( F | A ) {
    ( 0 ) 1.0, 0.0, 0.0, 0.0, 0.0, 0.0, 0.0;
    ( 1 ) 0.0, 1.0, 0.0, 0.0, 0.0, 0.0, 0.0;
    ( 2 ) 0.0, 0.0, 1.0, 0.0, 0.0, 0.0, 0.0;
    ( 3 ) 0.0, 0.0, 0.0, 1.0, 0.0, 0.0, 0.0;
    ( 4 ) 0.0, 0.0, 0.0, 0.0, 1.0, 0.0, 0.0;
    ( 5 ) 0.0, 0.0, 0.0, 0.0, 0.0, 1.0, 0.0;
    ( 6 ) 0.0, 0.0, 0.0, 0.0, 0.0, 0.0, 1.0;

}
probability ( G | D, H ) {
    ( -12, -6 ) 1.0, 0.0, 0.0;
    ( -12, -5 ) 0.3333333333333333, 0.3333333333333333, 0.3333333333333333;
    ( -12, -4 ) 0.3333333333333333, 0.3333333333333333, 0.3333333333333333;
    ( -12, -3 ) 0.3333333333333333, 0.3333333333333333, 0.3333333333333333;
    ( -12, -2 ) 0.3333333333333333, 0.3333333333333333, 0.3333333333333333;
    ( -12, -1 ) 0.3333333333333333, 0.3333333333333333, 0.3333333333333333;
    ( -12, 0 ) 0.3333333333333333, 0.3333333333333333, 0.3333333333333333;
    ( -12, 1 ) 0.3333333333333333, 0.3333333333333333, 0.3333333333333333;
    ( -12, 2 ) 0.3333333333333333, 0.3333333333333333, 0.3333333333333333;
    ( -11, -6 ) 0.3333333333333333, 0.3333333333333333, 0.3333333333333333;
    ( -11, -5 ) 0.0, 1.0, 0.0;
    ( -11, -4 ) 0.3333333333333333, 0.3333333333333333, 0.3333333333333333;
    ( -11, -3 ) 0.3333333333333333, 0.3333333333333333, 0.3333333333333333;
    ( -11, -2 ) 0.3333333333333333, 0.3333333333333333, 0.3333333333333333;
    ( -11, -1 ) 0.3333333333333333, 0.3333333333333333, 0.3333333333333333;
    ( -11, 0 ) 0.3333333333333333, 0.3333333333333333, 0.3333333333333333;
    ( -11, 1 ) 0.3333333333333333, 0.3333333333333333, 0.3333333333333333;
    ( -11, 2 ) 0.3333333333333333, 0.3333333333333333, 0.3333333333333333;
    ( -10, -6 ) 0.3333333333333333, 0.3333333333333333, 0.3333333333333333;
    ( -10, -5 ) 1.0, 0.0, 0.0;
    ( -10, -4 ) 0.0, 0.0, 1.0;
    ( -10, -3 ) 0.3333333333333333, 0.3333333333333333, 0.3333333333333333;
    ( -10, -2 ) 0.3333333333333333, 0.3333333333333333, 0.3333333333333333;
    ( -10, -1 ) 0.3333333333333333, 0.3333333333333333, 0.3333333333333333;
    ( -10, 0 ) 0.3333333333333333, 0.3333333333333333, 0.3333333333333333;
    ( -10, 1 ) 0.3333333333333333, 0.3333333333333333, 0.3333333333333333;
    ( -10, 2 ) 0.3333333333333333, 0.3333333333333333, 0.3333333333333333;
    ( -9, -6 ) 0.3333333333333333, 0.3333333333333333, 0.3333333333333333;
    ( -9, -5 ) 0.3333333333333333, 0.3333333333333333, 0.3333333333333333;
    ( -9, -4 ) 0.0, 1.0, 0.0;
    ( -9, -3 ) 0.3333333333333333, 0.3333333333333333, 0.3333333333333333;
    ( -9, -2 ) 0.3333333333333333, 0.3333333333333333, 0.3333333333333333;
    ( -9, -1 ) 0.3333333333333333, 0.3333333333333333, 0.3333333333333333;
    ( -9, 0 ) 0.3333333333333333, 0.3333333333333333, 0.3333333333333333;
    ( -9, 1 ) 0.3333333333333333, 0.3333333333333333, 0.3333333333333333;
    ( -9, 2 ) 0.3333333333333333, 0.3333333333333333, 0.3333333333333333;
    ( -8, -6 ) 0.3333333333333333, 0.3333333333333333, 0.3333333333333333;
    ( -8, -5 ) 0.3333333333333333, 0.3333333333333333, 0.3333333333333333;
    ( -8, -4 ) 1.0, 0.0, 0.0;
    ( -8, -3 ) 0.0, 0.0, 1.0;
    ( -8, -2 ) 0.3333333333333333, 0.3333333333333333, 0.3333333333333333;
    ( -8, -1 ) 0.3333333333333333, 0.3333333333333333, 0.3333333333333333;
    ( -8, 0 ) 0.3333333333333333, 0.3333333333333333, 0.3333333333333333;
    ( -8, 1 ) 0.3333333333333333, 0.3333333333333333, 0.3333333333333333;
    ( -8, 2 ) 0.3333333333333333, 0.3333333333333333, 0.3333333333333333;
    ( -7, -6 ) 0.3333333333333333, 0.3333333333333333, 0.3333333333333333;
    ( -7, -5 ) 0.3333333333333333, 0.3333333333333333, 0.3333333333333333;
    ( -7, -4 ) 0.3333333333333333, 0.3333333333333333, 0.3333333333333333;
    ( -7, -3 ) 0.0, 1.0, 0.0;
    ( -7, -2 ) 0.3333333333333333, 0.3333333333333333, 0.3333333333333333;
    ( -7, -1 ) 0.3333333333333333, 0.3333333333333333, 0.3333333333333333;
    ( -7, 0 ) 0.3333333333333333, 0.3333333333333333, 0.3333333333333333;
    ( -7, 1 ) 0.3333333333333333, 0.3333333333333333, 0.3333333333333333;
    ( -7, 2 ) 0.3333333333333333, 0.3333333333333333, 0.3333333333333333;
    ( -6, -6 ) 0.3333333333333333, 0.3333333333333333, 0.3333333333333333;
    ( -6, -5 ) 0.3333333333333333, 0.3333333333333333, 0.3333333333333333;
    ( -6, -4 ) 0.3333333333333333, 0.3333333333333333, 0.3333333333333333;
    ( -6, -3 ) 1.0, 0.0, 0.0;
    ( -6, -2 ) 0.0, 0.0, 1.0;
    ( -6, -1 ) 0.3333333333333333, 0.3333333333333333, 0.3333333333333333;
    ( -6, 0 ) 0.3333333333333333, 0.3333333333333333, 0.3333333333333333;
    ( -6, 1 ) 0.3333333333333333, 0.3333333333333333, 0.3333333333333333;
    ( -6, 2 ) 0.3333333333333333, 0.3333333333333333, 0.3333333333333333;
    ( -5, -6 ) 0.3333333333333333, 0.3333333333333333, 0.3333333333333333;
    ( -5, -5 ) 0.3333333333333333, 0.3333333333333333, 0.3333333333333333;
    ( -5, -4 ) 0.3333333333333333, 0.3333333333333333, 0.3333333333333333;
    ( -5, -3 ) 0.3333333333333333, 0.3333333333333333, 0.3333333333333333;
    ( -5, -2 ) 0.0, 1.0, 0.0;
    ( -5, -1 ) 0.3333333333333333, 0.3333333333333333, 0.3333333333333333;
    ( -5, 0 ) 0.3333333333333333, 0.3333333333333333, 0.3333333333333333;
    ( -5, 1 ) 0.3333333333333333, 0.3333333333333333, 0.3333333333333333;
    ( -5, 2 ) 0.3333333333333333, 0.3333333333333333, 0.3333333333333333;
    ( -4, -6 ) 0.3333333333333333, 0.3333333333333333, 0.3333333333333333;
    ( -4, -5 ) 0.3333333333333333, 0.3333333333333333, 0.3333333333333333;
    ( -4, -4 ) 0.3333333333333333, 0.3333333333333333, 0.3333333333333333;
    ( -4, -3 ) 0.3333333333333333, 0.3333333333333333, 0.3333333333333333;
    ( -4, -2 ) 1.0, 0.0, 0.0;
    ( -4, -1 ) 0.0, 0.0, 1.0;
    ( -4, 0 ) 0.3333333333333333, 0.3333333333333333, 0.3333333333333333;
    ( -4, 1 ) 0.3333333333333333, 0.3333333333333333, 0.3333333333333333;
    ( -4, 2 ) 0.3333333333333333, 0.3333333333333333, 0.3333333333333333;
    ( -3, -6 ) 0.3333333333333333, 0.3333333333333333, 0.3333333333333333;
    ( -3, -5 ) 0.3333333333333333, 0.3333333333333333, 0.3333333333333333;
    ( -3, -4 ) 0.3333333333333333, 0.3333333333333333, 0.3333333333333333;
    ( -3, -3 ) 0.3333333333333333, 0.3333333333333333, 0.3333333333333333;
    ( -3, -2 ) 0.3333333333333333, 0.3333333333333333, 0.3333333333333333;
    ( -3, -1 ) 0.0, 1.0, 0.0;
    ( -3, 0 ) 0.3333333333333333, 0.3333333333333333, 0.3333333333333333;
    ( -3, 1 ) 0.3333333333333333, 0.3333333333333333, 0.3333333333333333;
    ( -3, 2 ) 0.3333333333333333, 0.3333333333333333, 0.3333333333333333;
    ( -2, -6 ) 0.3333333333333333, 0.3333333333333333, 0.3333333333333333;
    ( -2, -5 ) 0.3333333333333333, 0.3333333333333333, 0.3333333333333333;
    ( -2, -4 ) 0.3333333333333333, 0.3333333333333333, 0.3333333333333333;
    ( -2, -3 ) 0.3333333333333333, 0.3333333333333333, 0.3333333333333333;
    ( -2, -2 ) 0.3333333333333333, 0.3333333333333333, 0.3333333333333333;
    ( -2, -1 ) 1.0, 0.0, 0.0;
    ( -2, 0 ) 0.0, 0.0, 1.0;
    ( -2, 1 ) 0.3333333333333333, 0.3333333333333333, 0.3333333333333333;
    ( -2, 2 ) 0.3333333333333333, 0.3333333333333333, 0.3333333333333333;
    ( -1, -6 ) 0.3333333333333333, 0.3333333333333333, 0.3333333333333333;
    ( -1, -5 ) 0.3333333333333333, 0.3333333333333333, 0.3333333333333333;
    ( -1, -4 ) 0.3333333333333333, 0.3333333333333333, 0.3333333333333333;
    ( -1, -3 ) 0.3333333333333333, 0.3333333333333333, 0.3333333333333333;
    ( -1, -2 ) 0.3333333333333333, 0.3333333333333333, 0.3333333333333333;
    ( -1, -1 ) 0.3333333333333333, 0.3333333333333333, 0.3333333333333333;
    ( -1, 0 ) 0.0, 1.0, 0.0;
    ( -1, 1 ) 0.3333333333333333, 0.3333333333333333, 0.3333333333333333;
    ( -1, 2 ) 0.3333333333333333, 0.3333333333333333, 0.3333333333333333;
    ( 0, -6 ) 0.3333333333333333, 0.3333333333333333, 0.3333333333333333;
    ( 0, -5 ) 0.3333333333333333, 0.3333333333333333, 0.3333333333333333;
    ( 0, -4 ) 0.3333333333333333, 0.3333333333333333, 0.3333333333333333;
    ( 0, -3 ) 0.3333333333333333, 0.3333333333333333, 0.3333333333333333;
    ( 0, -2 ) 0.3333333333333333, 0.3333333333333333, 0.3333333333333333;
    ( 0, -1 ) 0.3333333333333333, 0.3333333333333333, 0.3333333333333333;
    ( 0, 0 ) 1.0, 0.0, 0.0;
    ( 0, 1 ) 0.0, 0.0, 1.0;
    ( 0, 2 ) 0.3333333333333333, 0.3333333333333333, 0.3333333333333333;
    ( 1, -6 ) 0.3333333333333333, 0.3333333333333333, 0.3333333333333333;
    ( 1, -5 ) 0.3333333333333333, 0.3333333333333333, 0.3333333333333333;
    ( 1, -4 ) 0.3333333333333333, 0.3333333333333333, 0.3333333333333333;
    ( 1, -3 ) 0.3333333333333333, 0.3333333333333333, 0.3333333333333333;
    ( 1, -2 ) 0.3333333333333333, 0.3333333333333333, 0.3333333333333333;
    ( 1, -1 ) 0.3333333333333333, 0.3333333333333333, 0.3333333333333333;
    ( 1, 0 ) 0.3333333333333333, 0.3333333333333333, 0.3333333333333333;
    ( 1, 1 ) 0.0, 1.0, 0.0;
    ( 1, 2 ) 0.3333333333333333, 0.3333333333333333, 0.3333333333333333;
    ( 2, -6 ) 0.3333333333333333, 0.3333333333333333, 0.3333333333333333;
    ( 2, -5 ) 0.3333333333333333, 0.3333333333333333, 0.3333333333333333;
    ( 2, -4 ) 0.3333333333333333, 0.3333333333333333, 0.3333333333333333;
    ( 2, -3 ) 0.3333333333333333, 0.3333333333333333, 0.3333333333333333;
    ( 2, -2 ) 0.3333333333333333, 0.3333333333333333, 0.3333333333333333;
    ( 2, -1 ) 0.3333333333333333, 0.3333333333333333, 0.3333333333333333;
    ( 2, 0 ) 0.3333333333333333, 0.3333333333333333, 0.3333333333333333;
    ( 2, 1 ) 0.3333333333333333, 0.3333333333333333, 0.3333333333333333;
    ( 2, 2 ) 0.0, 0.0, 1.0;

}
probability ( H ) {
    table 0.01244, 0.05012, 0.12168, 0.19908, 0.23516, 0.20264, 0.11828, 0.04852, 0.01208 ;
}
